MTP
version = 1.1.0
potential_name = MTP1m
scaling = 1.383702673372287e-02
species_count = 1
potential_tag = 
radial_basis_type = RBChebyshev
	min_dist = 5.000000000000000e-01
	max_dist = 5.000000000000000e+00
	radial_basis_size = 8
	radial_funcs_count = 2
	radial_coeffs
		0-0
			{3.440705254764684e-01, 8.594622186203447e-01, 3.270864584116306e-01, -2.260949196470351e-02, -5.747707899979448e-02, 9.026940943178385e-02, -1.294468362966065e-01, 8.505740851133721e-02}
			{-4.949279365175230e-01, 4.451560606802771e-01, -6.448939946758966e-01, 3.422755586073016e-01, -1.468483854456438e-01, 3.372979851977434e-02, 2.376027793920649e-02, -2.397702402766832e-02}
alpha_moments_count = 8
alpha_index_basic_count = 5
alpha_index_basic = {{0, 0, 0, 0}, {0, 1, 0, 0}, {0, 0, 1, 0}, {0, 0, 0, 1}, {1, 0, 0, 0}}
alpha_index_times_count = 5
alpha_index_times = {{0, 0, 1, 5}, {1, 1, 1, 6}, {2, 2, 1, 6}, {3, 3, 1, 6}, {0, 5, 1, 7}}
alpha_scalar_moments = 5
alpha_moment_mapping = {0, 4, 5, 6, 7}
species_coeffs = {1.049374214298117e+00}
moment_coeffs = {-4.844867711803163e+01, -1.668713560186864e+02, -2.437012137517811e+01, -4.439219286205496e-01, 5.295418473497919e+01}