MTP
version = 1.1.0
potential_name = MTP1m
scaling = 3.414639705327995e-02
species_count = 1
potential_tag = 
radial_basis_type = RBChebyshev
	min_dist = 5.000000000000000e-01
	max_dist = 5.000000000000000e+00
	radial_basis_size = 8
	radial_funcs_count = 2
	radial_coeffs
		0-0
			{4.244009281071071e-01, 6.196169296467225e-01, 1.246217395539396e-01, 5.557523493213373e-01, -1.775476032011031e-01, 2.786206783354357e-01, -4.913400397151068e-02, 8.222083262293812e-04}
			{-6.069854894496445e-01, 4.621971956667978e-01, -6.299279542841382e-01, 9.389293388853567e-02, -8.973390138440011e-02, -6.501749651462234e-02, 5.644340592066193e-03, 2.439262411877729e-03}
alpha_moments_count = 18
alpha_index_basic_count = 11
alpha_index_basic = {{0, 0, 0, 0}, {0, 1, 0, 0}, {0, 0, 1, 0}, {0, 0, 0, 1}, {0, 2, 0, 0}, {0, 1, 1, 0}, {0, 1, 0, 1}, {0, 0, 2, 0}, {0, 0, 1, 1}, {0, 0, 0, 2}, {1, 0, 0, 0}}
alpha_index_times_count = 14
alpha_index_times = {{0, 0, 1, 11}, {1, 1, 1, 12}, {2, 2, 1, 12}, {3, 3, 1, 12}, {4, 4, 1, 13}, {5, 5, 2, 13}, {6, 6, 2, 13}, {7, 7, 1, 13}, {8, 8, 2, 13}, {9, 9, 1, 13}, {0, 10, 1, 14}, {0, 11, 1, 15}, {0, 12, 1, 16}, {0, 15, 1, 17}}
alpha_scalar_moments = 9
alpha_moment_mapping = {0, 10, 11, 12, 13, 14, 15, 16, 17}
species_coeffs = {6.163632835398286e+00}
moment_coeffs = {-3.471792373887251e+01, -4.138792015295917e+01, -2.231423870307337e+01, 2.506072350280161e+01, 7.139013577488846e+00, -3.181484846856087e+01, 5.101319276230056e+01, -3.292213467661859e+01, -3.837750333370778e+01}