MTP
version = 1.1.0
potential_name = MTP1m
scaling = 3.543565659685825e+01
species_count = 3
potential_tag = 
radial_basis_type = RBChebyshev
	min_dist = 5.000000000000000e-01
	max_dist = 5.000000000000000e+00
	radial_basis_size = 8
	radial_funcs_count = 1
	radial_coeffs
		0-0
			{1.399571472472232e-01, -2.286504922560992e-01, 1.483513194438943e-01, -4.945926384624952e-02, 1.146121411690911e-03, 1.583470485902138e-02, -8.595391117414712e-03, 2.204991885222832e-03}
		0-1
			{1.169915656166056e-01, -2.250318744500487e-01, 1.539786647929797e-01, -1.192008963222214e-01, 5.225497965754453e-02, -4.154609263133992e-02, 1.288025859821653e-02, -8.397499859164360e-03}
		0-2
			{1.487666199827316e-01, -3.139774268558949e-01, 2.359163721469431e-01, -1.881434205226547e-01, 1.123594078120835e-01, -7.451751323462633e-02, 2.863004691902573e-02, -1.554272293398418e-02}
		1-0
			{2.192448911166039e-01, -3.440712678502423e-01, 2.482414947667176e-01, -7.469907591299539e-02, 1.013745391139539e-02, 3.698797369513601e-02, -1.786143204808798e-02, 9.420639275028899e-03}
		1-1
			{1.236548604860851e-01, -1.885485337737205e-01, 1.354171195934246e-01, -4.259252938045403e-02, 3.879005032684544e-03, 1.575341054363484e-02, -8.119029845715078e-03, 3.287937190477410e-03}
		1-2
			{2.841371660590145e-02, -1.035880609801446e-01, 2.904470692799799e-02, -6.175419125490394e-02, 2.586763718806323e-03, -3.023271410955792e-02, 1.301479797982781e-03, -1.045858865510337e-02}
		2-0
			{1.906225607484790e-01, -2.569296420407175e-01, 2.028243934316624e-01, -4.316186547538076e-02, -1.001351030289086e-02, 5.172855048230417e-02, -2.479286534693558e-02, 1.554708742064493e-02}
		2-1
			{1.117660815613731e-01, -8.699629854026258e-02, 1.169172328373209e-01, 4.230510668533671e-02, -1.421507924911201e-02, 6.854566258845453e-02, -1.645405771606552e-02, 1.742495127770774e-02}
		2-2
			{9.280846741812630e-02, -1.527471071652922e-01, 1.211840090222140e-01, -6.235901049921724e-02, 2.799201589074355e-02, -5.001887829076272e-03, 8.463315438454564e-04, -2.901634478860693e-04}
alpha_moments_count = 2
alpha_index_basic_count = 1
alpha_index_basic = {{0, 0, 0, 0}}
alpha_index_times_count = 1
alpha_index_times = {{0, 0, 1, 1}}
alpha_scalar_moments = 2
alpha_moment_mapping = {0, 1}
species_coeffs = {-1.239989962168555e-01, -1.240316788596063e-01, -3.234122733569661e-02}
moment_coeffs = {1.234707471498103e-01, 4.997710636398989e-03}