MTP
version = 1.1.0
potential_name = MTP1m
scaling = 1.121566547846151e-01
species_count = 2
potential_tag = 
radial_basis_type = RBChebyshev
	min_dist = 5.000000000000000e-01
	max_dist = 5.000000000000000e+00
	radial_basis_size = 8
	radial_funcs_count = 2
	radial_coeffs
		0-0
			{1.447730105576116e-01, 1.507497060303472e-04, 1.447789812823331e-04, 1.447789812823331e-04, 1.447789812823331e-04, 1.447789812823331e-04, 1.447789812823331e-04, 1.447789812823331e-04}
			{2.114083983830068e-01, 2.169628483544079e-01, 4.279433034339827e-04, 4.279433034339827e-04, 4.279433034339827e-04, 4.279433034339827e-04, 4.279433034339827e-04, 4.279433034339827e-04}
		0-1
			{1.718515757722960e-02, 5.030440614541824e-02, 6.866393034662348e-02, -3.914193245810400e-02, -1.050491684097601e-01, 7.752939790225173e-02, 1.629103345354711e-01, 8.364053464264098e-02}
			{1.499383927339238e-01, 3.767923008837376e-01, -2.229610397452590e-01, 4.521664516436472e-03, 2.115071733761378e-01, -1.981233921067332e-02, -2.517278786986432e-01, -1.190299001333986e-01}
		1-0
			{2.480003311537061e-02, -8.093344424133103e-02, 3.394363080896357e-01, -1.373615217332478e-01, -3.287462233452879e-01, 2.213329638448573e-01, 4.978403685466016e-01, 2.260624619619405e-01}
			{2.730277996789369e-01, 2.152519395146320e-01, -4.274646402497022e-02, -5.420159518829672e-02, 1.140987881346516e-01, 3.170449567302464e-02, -1.047802259121863e-01, -7.597956202642601e-02}
		1-1
			{3.707303780614987e-01, 3.930047342034246e-02, -5.751839722279056e-02, -3.508172380866954e-01, 1.343883475176525e-01, 1.214519159921509e-01, 1.528648715908743e-01, 2.406426579395666e-02}
			{3.411995898520310e-01, 4.205676614859723e-01, -2.993424612640473e-01, -3.121976342276154e-02, -1.631313254081509e-01, 5.828912224637593e-02, -9.943570521808519e-03, 3.134085965511653e-02}
alpha_moments_count = 8
alpha_index_basic_count = 5
alpha_index_basic = {{0, 0, 0, 0}, {0, 1, 0, 0}, {0, 0, 1, 0}, {0, 0, 0, 1}, {1, 0, 0, 0}}
alpha_index_times_count = 5
alpha_index_times = {{0, 0, 1, 5}, {1, 1, 1, 6}, {2, 2, 1, 6}, {3, 3, 1, 6}, {0, 5, 1, 7}}
alpha_scalar_moments = 5
alpha_moment_mapping = {0, 4, 5, 6, 7}
species_coeffs = {2.142164463391336e+02, 6.525233783409254e+01}
moment_coeffs = {-3.387484531337409e+02, -5.063371141810857e+01, 4.152015406329043e+02, 2.763979294671734e+01, -2.044930504654090e+02}