MTP
version = 1.1.0
potential_name = MTP1m
scaling = 1.000000000000000e+00
species_count = 2
potential_tag = 
radial_basis_type = RBChebyshev
	min_dist = 5.000000000000000e-01
	max_dist = 5.000000000000000e+00
	radial_basis_size = 8
	radial_funcs_count = 1
	radial_coeffs
		0-0
			{2.922806883751844e+04, 1.938305860150832e+04, -1.961678924171011e+04, -3.330086040778446e+04, -2.604992977580144e+04, -1.341093154389334e+04, -4.372329982499161e+03, -8.175013529431221e+02}
		0-1
			{-9.151579772317386e+03, -1.415791238697098e+04, -8.369738980022965e+03, -3.950736118409146e+03, -1.477120279106836e+03, -4.192139548558976e+02, -8.174857147702467e+01, -8.492048760019312e+00}
		1-0
			{-9.151580096846650e+03, -1.415791239860619e+04, -8.369739118282370e+03, -3.950736374846882e+03, -1.477119627969752e+03, -4.192138680771843e+02, -8.174847732308997e+01, -8.492382469648870e+00}
		1-1
			{-1.957135190363937e+02, -3.269897070149068e+02, -2.146958503053858e+02, -1.226082409817282e+02, -5.579201314581533e+01, -2.254736480720546e+01, -6.061790488829740e+00, -1.487231092457575e+00}
alpha_moments_count = 1
alpha_index_basic_count = 1
alpha_index_basic = {{0, 0, 0, 0}}
alpha_index_times_count = 0
alpha_index_times = {}
alpha_scalar_moments = 1
alpha_moment_mapping = {0}
species_coeffs = {2.739560485559633e+00, -6.112156024794768e-01}
moment_coeffs = {1.000000000003100e+00}
