MTP
version = 1.1.0
potential_name = MTP1m
scaling = 1.260549980243279e+06
species_count = 1
potential_tag = 
radial_basis_type = RBChebyshev
	min_dist = 5.000000000000000e-01
	max_dist = 5.000000000000000e+00
	radial_basis_size = 8
	radial_funcs_count = 1
	radial_coeffs
		0-0
			{-1.163979141793206e-01, -7.304950830056060e-02, 4.307237845170478e-01, -2.324660257341901e-01, -4.012215883237452e-01, 4.168285953140370e-01, 5.929011120064540e-01, 2.351495120458913e-01}
alpha_moments_count = 1
alpha_index_basic_count = 1
alpha_index_basic = {{0, 0, 0, 0}}
alpha_index_times_count = 0
alpha_index_times = {}
alpha_scalar_moments = 1
alpha_moment_mapping = {0}
species_coeffs = {-1.111629256472995e+01}
moment_coeffs = {-3.026561443919481e-07}