MTP
version = 1.1.0
potential_name = MTP1m
scaling = 7.724287519601593e-02
species_count = 2
potential_tag = 
radial_basis_type = RBChebyshev
	min_dist = 5.000000000000000e-01
	max_dist = 5.000000000000000e+00
	radial_basis_size = 8
	radial_funcs_count = 2
	radial_coeffs
		0-0
			{3.959039421384470e-01, 4.013060348186286e-04, 3.959093388343463e-04, 3.959093388343463e-04, 3.959093388343463e-04, 3.959093388343463e-04, 3.959093388343463e-04, 3.959093388343463e-04}
			{1.875675661227439e-02, 4.308757808311028e-01, 4.491833540893280e-04, 4.491833540893280e-04, 4.491833540893280e-04, 4.491833540893280e-04, 4.491833540893280e-04, 4.491833540893280e-04}
		0-1
			{4.276954396521890e-01, 4.042756203561223e-02, -1.467183714262087e-01, 1.273252906155855e-01, -1.154852050555011e-02, -2.835803842488560e-02, -4.090050839812839e-03, 3.702809669712878e-02}
			{-3.207607600609691e-02, 3.867636911532288e-01, 2.101524459117835e-01, -2.297538808657529e-01, 6.311008067702931e-02, 7.907763223776865e-02, 1.451172273684508e-02, -6.753154794173646e-02}
		1-0
			{8.278680282620701e-02, 2.085441265289321e-01, -6.696105936085878e-04, -1.052670060390746e-01, 4.364057083673307e-02, 4.895796466595304e-02, -1.261891148091737e-02, -1.166228504727184e-02}
			{1.182960744758390e-01, 3.270744710482433e-01, 6.756030656483455e-02, 5.810017392476895e-02, -1.663131795858129e-01, 8.244768875609182e-02, 1.263032325971900e-01, 8.897672187688400e-02}
		1-1
			{6.164000787573957e-01, 5.693613819643484e-02, -3.332081491903727e-01, 3.383621931618854e-02, 2.067973244681686e-01, 1.180136432617775e-01, 1.320949296455070e-02, -1.962422909348885e-02}
			{-3.883297326361745e-02, 4.659025095085546e-01, 6.281564010209206e-02, -1.248435165693795e-01, -8.487264043502922e-02, 2.533573312201694e-01, 2.014152132698300e-01, 1.188059427827153e-01}
alpha_moments_count = 18
alpha_index_basic_count = 11
alpha_index_basic = {{0, 0, 0, 0}, {0, 1, 0, 0}, {0, 0, 1, 0}, {0, 0, 0, 1}, {0, 2, 0, 0}, {0, 1, 1, 0}, {0, 1, 0, 1}, {0, 0, 2, 0}, {0, 0, 1, 1}, {0, 0, 0, 2}, {1, 0, 0, 0}}
alpha_index_times_count = 14
alpha_index_times = {{0, 0, 1, 11}, {1, 1, 1, 12}, {2, 2, 1, 12}, {3, 3, 1, 12}, {4, 4, 1, 13}, {5, 5, 2, 13}, {6, 6, 2, 13}, {7, 7, 1, 13}, {8, 8, 2, 13}, {9, 9, 1, 13}, {0, 10, 1, 14}, {0, 11, 1, 15}, {0, 12, 1, 16}, {0, 15, 1, 17}}
alpha_scalar_moments = 9
alpha_moment_mapping = {0, 10, 11, 12, 13, 14, 15, 16, 17}
species_coeffs = {-1.420030121923735e+02, -4.325544879204165e+01}
moment_coeffs = {9.960252396522944e+01, 1.499509019565409e+02, 4.636109884402320e+00, -2.642156874004596e+01, 1.391181252671137e+00, -1.195227859163515e+02, -4.445550872601314e+01, 1.462049997780560e+01, 1.722216346643690e+00}