MTP
version = 1.1.0
potential_name = MTP1m
scaling = 3.251673345074605e+05
species_count = 2
potential_tag = 
radial_basis_type = RBChebyshev
	min_dist = 5.000000000000000e-01
	max_dist = 5.000000000000000e+00
	radial_basis_size = 8
	radial_funcs_count = 1
	radial_coeffs
		0-0
			{1.298292326427448e-02, 1.298292326428117e-05, 1.298292326427362e-05, 1.298292326427362e-05, 1.298292326427362e-05, 1.298292326427362e-05, 1.298292326427362e-05, 1.298292326428453e-05}
		0-1
			{-1.943304480233094e-01, 2.300336439935613e-02, 2.244647472134775e-01, -6.977263664808067e-02, -3.356741769649325e-01, 2.517138835102428e-01, 4.169293564202475e-01, 2.375250212984236e-01}
		1-0
			{-1.943304480210427e-01, 2.300336439860126e-02, 2.244647472134927e-01, -6.977263664761631e-02, -3.356741769635143e-01, 2.517141351209983e-01, 4.169293564217896e-01, 2.375250212993132e-01}
		1-1
			{1.298292326428135e-02, 1.298292326428319e-05, 1.298292326428319e-05, 1.298292326428222e-05, 1.298292326428853e-05, 1.298292326428853e-05, 1.298292326428853e-05, 1.298292326428447e-05}
alpha_moments_count = 1
alpha_index_basic_count = 1
alpha_index_basic = {{0, 0, 0, 0}}
alpha_index_times_count = 0
alpha_index_times = {}
alpha_scalar_moments = 1
alpha_moment_mapping = {0}
species_coeffs = {-6.923286807298015e+01, -6.923955594664237e+01}
moment_coeffs = {-3.593887043257020e-06}