MTP
version = 1.1.0
potential_name = MTP1m
scaling = 4.822530864197532e-01
species_count = 1
potential_tag = 
radial_basis_type = RBChebyshev
	min_dist = 5.000000000000000e-01
	max_dist = 5.000000000000000e+00
	radial_basis_size = 8
	radial_funcs_count = 2
	radial_coeffs
		0-0
			{3.837139014876141e-01, 6.934967359192709e-01, 5.105742866316750e-01, 3.002694850462849e-01, 1.372135496727451e-01, 4.535307853586946e-02, 9.645920079239248e-03, 7.407661001261272e-04}
			{-2.832984008089391e-01, -3.125606417975685e-01, 1.305760735021939e-01, 5.348676641382770e-01, 5.697965991403614e-01, 4.045951815425520e-01, 1.683432105607493e-01, 4.700499468066580e-02}
alpha_moments_count = 8
alpha_index_basic_count = 5
alpha_index_basic = {{0, 0, 0, 0}, {0, 1, 0, 0}, {0, 0, 1, 0}, {0, 0, 0, 1}, {1, 0, 0, 0}}
alpha_index_times_count = 5
alpha_index_times = {{0, 0, 1, 5}, {1, 1, 1, 6}, {2, 2, 1, 6}, {3, 3, 1, 6}, {0, 5, 1, 7}}
alpha_scalar_moments = 5
alpha_moment_mapping = {0, 4, 5, 6, 7}
species_coeffs = {-1.109127535305584e+02}
moment_coeffs = {-6.441037916652777e+03, -1.312494396257819e+02, 5.499072514117034e+03, -7.169104936685150e+03, -4.218611278375915e+00}