MTP
version = 1.1.0
potential_name = MTP1m
scaling = 1.811392590596448e-02
species_count = 1
potential_tag = 
radial_basis_type = RBChebyshev
	min_dist = 5.000000000000000e-01
	max_dist = 5.000000000000000e+00
	radial_basis_size = 8
	radial_funcs_count = 2
	radial_coeffs
		0-0
			{9.986871448545149e-01, 9.455085672797311e-03, 2.799091190943478e-02, -2.065899229167386e-02, -1.682151839832960e-02, 3.071223651107865e-02, 1.906086000898049e-03, 9.719260704780011e-03}
			{-1.071018684326976e-02, 9.977056390666836e-01, 2.546183783884328e-02, -6.692245276531876e-03, -1.815735273603365e-02, 8.382294987020183e-04, 5.860902372160242e-02, -3.201217061895455e-03}
alpha_moments_count = 18
alpha_index_basic_count = 11
alpha_index_basic = {{0, 0, 0, 0}, {0, 1, 0, 0}, {0, 0, 1, 0}, {0, 0, 0, 1}, {0, 2, 0, 0}, {0, 1, 1, 0}, {0, 1, 0, 1}, {0, 0, 2, 0}, {0, 0, 1, 1}, {0, 0, 0, 2}, {1, 0, 0, 0}}
alpha_index_times_count = 14
alpha_index_times = {{0, 0, 1, 11}, {1, 1, 1, 12}, {2, 2, 1, 12}, {3, 3, 1, 12}, {4, 4, 1, 13}, {5, 5, 2, 13}, {6, 6, 2, 13}, {7, 7, 1, 13}, {8, 8, 2, 13}, {9, 9, 1, 13}, {0, 10, 1, 14}, {0, 11, 1, 15}, {0, 12, 1, 16}, {0, 15, 1, 17}}
alpha_scalar_moments = 9
alpha_moment_mapping = {0, 10, 11, 12, 13, 14, 15, 16, 17}
species_coeffs = {-1.549214865756318e+02}
moment_coeffs = {1.489958533160358e+03, 1.278472003249592e+03, -7.369511092462975e+02, -7.366514521712384e+02, -7.379700465837423e+02, -4.483667360499173e+03, -1.637919123660521e+03, -1.634586044059047e+03, -4.126328694352574e+03}