MTP
version = 1.1.0
potential_name = MTP1m
scaling = 1.811392590596449e-02
species_count = 1
potential_tag = 
radial_basis_type = RBChebyshev
	min_dist = 5.000000000000000e-01
	max_dist = 5.000000000000000e+00
	radial_basis_size = 8
	radial_funcs_count = 2
	radial_coeffs
		0-0
			{5.803543493760751e-01, 3.673410741688519e-01, 6.211893128932874e-01, 2.465336145453908e-01, 2.424186022621099e-01, 1.350245861478983e-01, 6.779330665073312e-02, 1.673957297975373e-04}
			{-2.372675636706388e-01, 7.897246045324391e-01, -3.810956330045258e-01, 3.929641979487420e-01, -1.052771997361582e-01, 9.639777785905022e-02, -6.013907513529212e-04, 2.868279968586735e-03}
alpha_moments_count = 18
alpha_index_basic_count = 11
alpha_index_basic = {{0, 0, 0, 0}, {0, 1, 0, 0}, {0, 0, 1, 0}, {0, 0, 0, 1}, {0, 2, 0, 0}, {0, 1, 1, 0}, {0, 1, 0, 1}, {0, 0, 2, 0}, {0, 0, 1, 1}, {0, 0, 0, 2}, {1, 0, 0, 0}}
alpha_index_times_count = 14
alpha_index_times = {{0, 0, 1, 11}, {1, 1, 1, 12}, {2, 2, 1, 12}, {3, 3, 1, 12}, {4, 4, 1, 13}, {5, 5, 2, 13}, {6, 6, 2, 13}, {7, 7, 1, 13}, {8, 8, 2, 13}, {9, 9, 1, 13}, {0, 10, 1, 14}, {0, 11, 1, 15}, {0, 12, 1, 16}, {0, 15, 1, 17}}
alpha_scalar_moments = 9
alpha_moment_mapping = {0, 10, 11, 12, 13, 14, 15, 16, 17}
species_coeffs = {4.272184291610094e+01}
moment_coeffs = {-3.820497310222122e+02, -1.100546672355912e+02, 9.845411224652212e+02, 9.874277957059699e+02, 8.201285197173713e+01, -1.114504359340500e+02, 1.111039839051732e+03, -3.805482417790745e+03, -4.654549935930942e+03}