MTP
version = 1.1.0
potential_name = MTP1m
scaling = 2.814073276272675e-01
species_count = 1
potential_tag = 
radial_basis_type = RBChebyshev
	min_dist = 5.000000000000000e-01
	max_dist = 5.000000000000000e+00
	radial_basis_size = 8
	radial_funcs_count = 1
	radial_coeffs
		0-0
			{3.730653755313030e-01, -6.861717385909608e-01, 5.175473100207912e-01, -3.113233314862797e-01, 1.497609185222521e-01, -5.119648498035315e-02, 1.278002858915672e-02, -6.270403187866734e-04}
alpha_moments_count = 2
alpha_index_basic_count = 1
alpha_index_basic = {{0, 0, 0, 0}}
alpha_index_times_count = 1
alpha_index_times = {{0, 0, 1, 1}}
alpha_scalar_moments = 2
alpha_moment_mapping = {0, 1}
species_coeffs = {1.483977890659601e+00}
moment_coeffs = {1.085368085146866e+01, 1.060348271173685e+01}