MTP
version = 1.1.0
potential_name = MTP1m
scaling = 3.348979766803841e-01
species_count = 1
potential_tag = 
radial_basis_type = RBChebyshev
	min_dist = 5.000000000000000e-01
	max_dist = 5.000000000000000e+00
	radial_basis_size = 8
	radial_funcs_count = 1
	radial_coeffs
		0-0
			{9.074807241040982e-01, -1.528228333160846e-02, -1.836365180772806e-01, 1.244392128773003e-01, 1.603709400331947e-01, -1.846493098621748e-01, -2.426196127927687e-01, -9.142874477528350e-02}
alpha_moments_count = 2
alpha_index_basic_count = 1
alpha_index_basic = {{0, 0, 0, 0}}
alpha_index_times_count = 1
alpha_index_times = {{0, 0, 1, 1}}
alpha_scalar_moments = 2
alpha_moment_mapping = {0, 1}
species_coeffs = {1.150178136685846e+01}
moment_coeffs = {-1.106356116025306e+01, 1.230327883196960e+00}