MTP
version = 1.1.0
potential_name = MTP1m
scaling = 1.121566547846152e-01
species_count = 3
potential_tag = 
radial_basis_type = RBChebyshev
	min_dist = 5.000000000000000e-01
	max_dist = 5.000000000000000e+00
	radial_basis_size = 8
	radial_funcs_count = 2
	radial_coeffs
		0-0
			{3.524845424916722e-01, -2.610690597025587e-02, 3.261230411385332e-01, -4.379684055250270e-02, -2.317796213042140e-02, 9.281190511727695e-02, -5.948690629400396e-02, 4.961630633922207e-02}
			{1.196643261342758e-01, 4.014401356903569e-01, 1.481884030603484e-02, 1.416919180814622e-01, -1.095206973311353e-01, 1.240954507529455e-01, -6.739790756343554e-02, 5.105815954869906e-02}
		0-1
			{2.690804070752733e-01, -2.265546443899981e-02, 2.692512093611248e-01, -1.300255983518470e-01, 3.509746021279788e-02, -5.599084836282219e-03, -2.405006574988406e-02, 2.179337929664708e-02}
			{8.817983337378670e-02, 3.743743474567832e-01, -4.264348476152625e-03, 1.258295008127465e-01, -9.032407429682522e-02, 9.663820361363100e-02, -5.472258558466374e-02, 4.039723939196979e-02}
		0-2
			{2.302858873815038e-01, 3.136916969676937e-02, 2.071188279902883e-01, -3.967633632420100e-02, -4.891573046641813e-03, 1.631212679500882e-02, -3.178964626821607e-02, 1.620864814232619e-02}
			{1.247698562265760e-01, 2.485747134694352e-01, 4.941075516316542e-02, 9.766022022175946e-02, -7.477568601504549e-02, 6.964345393429304e-02, -4.928829429015728e-02, 2.552166397578528e-02}
		1-0
			{2.470418874872065e-01, -1.350246986659665e-01, 2.103432862547749e-01, -6.119411125272305e-02, -2.198262800164164e-03, 6.191990940101511e-03, -2.414072303428020e-02, 5.000369809021993e-03}
			{-3.617830779173411e-02, 3.009385420180664e-01, -1.398107582079680e-01, 6.699324201039476e-02, -5.830914373060231e-02, -2.167521676646559e-02, -1.166032926236834e-02, -8.863265321900489e-03}
		1-1
			{2.390943890380403e-01, -7.106085930347092e-02, 2.471006667322613e-01, -6.212563324404325e-02, 5.851821605176963e-02, 2.705559916025312e-03, -5.347460754641096e-03, 1.416951223377804e-02}
			{3.681725332970815e-03, 3.309097280599602e-01, -6.796889893994913e-02, 1.228620017348701e-01, -3.282400957071505e-02, 3.508901419976981e-02, -1.350851193595412e-02, 1.446226352975105e-02}
		1-2
			{2.228162050318873e-01, 2.546982404457558e-02, 1.943102435783939e-01, 7.689968969003307e-04, 1.632292488505135e-02, 3.050618810509446e-02, -1.226820468845404e-02, 1.678392050696596e-02}
			{9.614204359430238e-02, 2.229481049654791e-01, 3.148991748040941e-02, 1.027763377544798e-01, -2.923233935257116e-02, 5.284481194780249e-02, -1.627618405179453e-02, 1.759098772570028e-02}
		2-0
			{1.649540147557331e-01, -6.065366642489158e-02, 1.121082801595429e-01, -7.814753796768442e-03, -3.761579450636769e-02, 1.395981413413700e-02, -2.873223132351269e-02, -1.983320111803321e-03}
			{4.200961247308761e-03, 1.820232839084752e-01, -8.328507147416596e-02, 7.490162133561855e-02, -6.924139707348986e-02, 7.567643279190297e-03, -2.100242798744598e-02, -6.572539957747538e-03}
		2-1
			{1.395244177136727e-01, -2.435780523792714e-02, 1.065037032648545e-01, -5.166804061799073e-02, 6.204768517230082e-03, -3.679431716848859e-02, -5.452716754610550e-03, -1.558474468000863e-02}
			{-5.138981863241977e-03, 2.044937598741029e-01, -8.185321938354305e-02, 5.142688304105342e-02, -4.492469861494772e-02, -1.914531425833659e-02, -8.903033762227086e-03, -1.368432153679040e-02}
		2-2
			{1.691020121815837e-01, 8.522950281900019e-02, 1.404202051330257e-01, 2.816583552035578e-02, 1.176380009808966e-02, 1.728578573432103e-02, -7.793437401096437e-03, 4.015974166225886e-03}
			{8.000157807543336e-02, 1.874378140371514e-01, 3.096009927093763e-02, 7.731830159753100e-02, -1.604370564212007e-02, 2.405785209210181e-02, -9.010364804518315e-03, 3.690746955493069e-03}
alpha_moments_count = 18
alpha_index_basic_count = 11
alpha_index_basic = {{0, 0, 0, 0}, {0, 1, 0, 0}, {0, 0, 1, 0}, {0, 0, 0, 1}, {0, 2, 0, 0}, {0, 1, 1, 0}, {0, 1, 0, 1}, {0, 0, 2, 0}, {0, 0, 1, 1}, {0, 0, 0, 2}, {1, 0, 0, 0}}
alpha_index_times_count = 14
alpha_index_times = {{0, 0, 1, 11}, {1, 1, 1, 12}, {2, 2, 1, 12}, {3, 3, 1, 12}, {4, 4, 1, 13}, {5, 5, 2, 13}, {6, 6, 2, 13}, {7, 7, 1, 13}, {8, 8, 2, 13}, {9, 9, 1, 13}, {0, 10, 1, 14}, {0, 11, 1, 15}, {0, 12, 1, 16}, {0, 15, 1, 17}}
alpha_scalar_moments = 9
alpha_moment_mapping = {0, 10, 11, 12, 13, 14, 15, 16, 17}
species_coeffs = {-6.186147824374057e+01, -6.187778318696719e+01, 1.779709582775392e+01}
moment_coeffs = {4.170194401665988e+02, -2.458935195644012e+02, -7.060780450317988e+02, 2.178188329707618e+01, -4.281208422484899e+00, 2.038461276455356e+02, 5.858999732685872e+02, -2.719323538848673e+01, -2.362840833658399e+02}