MTP
version = 1.1.0
potential_name = MTP1m
scaling = 1.247515558262017e-02
species_count = 1
potential_tag = 
radial_basis_type = RBChebyshev
	min_dist = 5.000000000000000e-01
	max_dist = 5.000000000000000e+00
	radial_basis_size = 8
	radial_funcs_count = 2
	radial_coeffs
		0-0
			{2.739333883755811e-01, 7.739814149166969e-01, 3.849190394363093e-01, 2.001372541210394e-01, 3.415125233950494e-01, -2.369449334942886e-02, 1.388017038510698e-01, -3.517860495016988e-02}
			{-4.430918286058846e-01, 5.137757121969450e-01, -6.237401349774837e-01, 2.862760204269003e-01, -2.469790674563548e-01, 7.059203852255867e-02, -5.080393891209058e-02, 1.164029435446253e-02}
alpha_moments_count = 18
alpha_index_basic_count = 11
alpha_index_basic = {{0, 0, 0, 0}, {0, 1, 0, 0}, {0, 0, 1, 0}, {0, 0, 0, 1}, {0, 2, 0, 0}, {0, 1, 1, 0}, {0, 1, 0, 1}, {0, 0, 2, 0}, {0, 0, 1, 1}, {0, 0, 0, 2}, {1, 0, 0, 0}}
alpha_index_times_count = 14
alpha_index_times = {{0, 0, 1, 11}, {1, 1, 1, 12}, {2, 2, 1, 12}, {3, 3, 1, 12}, {4, 4, 1, 13}, {5, 5, 2, 13}, {6, 6, 2, 13}, {7, 7, 1, 13}, {8, 8, 2, 13}, {9, 9, 1, 13}, {0, 10, 1, 14}, {0, 11, 1, 15}, {0, 12, 1, 16}, {0, 15, 1, 17}}
alpha_scalar_moments = 9
alpha_moment_mapping = {0, 10, 11, 12, 13, 14, 15, 16, 17}
species_coeffs = {-1.629308072087816e+01}
moment_coeffs = {2.869071952383496e+02, -3.089126600260737e+02, -2.299159026518841e+03, -2.132069711301643e+03, 5.126523576318428e+02, 7.738171339006193e+02, 3.663299440528123e+03, 1.608205215442516e+04, 5.886791779774155e+03}