MTP
version = 1.1.0
potential_name = MTP1m
scaling = 1.000000000000000e+00
species_count = 1
potential_tag = 
radial_basis_type = RBChebyshev
	min_dist = 5.000000000000000e-01
	max_dist = 5.000000000000000e+00
	radial_basis_size = 8
	radial_funcs_count = 1
	radial_coeffs
		0-0
			{8.969065012075990e-01, -1.632761032771061e+00, 1.244858502502858e+00, -7.617945853537671e-01, 3.746693777500350e-01, -1.365423128066225e-01, 3.622177852120092e-02, -4.353416302595600e-03}
alpha_moments_count = 1
alpha_index_basic_count = 1
alpha_index_basic = {{0, 0, 0, 0}}
alpha_index_times_count = 0
alpha_index_times = {}
alpha_scalar_moments = 1
alpha_moment_mapping = {0}
species_coeffs = {6.025814576207269e-01}
moment_coeffs = {1.000000000000000e+00}
