MTP
version = 1.1.0
potential_name = MTP1m
scaling = 1.938066994678150e-01
species_count = 3
potential_tag = 
radial_basis_type = RBChebyshev
	min_dist = 5.000000000000000e-01
	max_dist = 5.000000000000000e+00
	radial_basis_size = 8
	radial_funcs_count = 3
	radial_coeffs
		0-0
			{2.748681003193165e-01, -2.025949966248813e-01, 7.663094865807961e-02, 1.665674060900729e-01, -2.148083102254870e-01, 2.019251132937942e-01, -1.029187811662245e-01, 3.979935624944696e-02}
			{6.782400426167978e-02, 1.067640300976831e-01, 7.961805465200411e-02, 3.286727922425014e-03, 4.378456187309557e-02, 9.216678277518224e-03, 1.872947675922733e-03, 1.057574599973949e-02}
			{-2.176842958094879e-01, -9.217583363439505e-02, 2.458400882601552e-02, -2.846927727930763e-01, 2.469972962618376e-01, -2.010555702196502e-01, 6.508131841220643e-02, -1.925983129904104e-02}
		0-1
			{2.547190612882810e-01, -1.915187681337902e-01, 8.888103277244075e-02, 1.148967980472888e-01, -1.620066408639066e-01, 1.600359498020827e-01, -8.304322685557200e-02, 3.285116764058398e-02}
			{3.919313165702384e-02, 1.023758065918685e-01, 4.747943984836953e-02, -2.208725269323633e-02, 4.724949110882030e-02, -1.901403045357348e-02, 1.109705133053958e-02, 5.911022701409463e-04}
			{-1.750337961618839e-02, -1.004200700224168e-01, 2.897992821335149e-03, -1.521092188863269e-01, 1.148898247039951e-01, -1.231575292734948e-01, 2.228371597958726e-02, -1.731612649309214e-02}
		0-2
			{1.188679007466461e-01, -1.415317327825316e-02, -3.624139216087074e-02, 1.058613599557470e-01, -1.266437647886956e-01, 9.613481179161419e-02, -5.574034068358128e-02, 1.776175672470203e-02}
			{-2.272742187260392e-02, 2.440409505956694e-01, -7.931886896833069e-02, 1.285030066579031e-01, -5.212867043642913e-02, 5.739373318027884e-02, -2.010791552830033e-02, 1.120907353951658e-02}
			{4.798366593820876e-02, -3.436482554961865e-02, -6.018978716870231e-02, 1.480533002980044e-02, 1.181088917842189e-02, -3.971453241623314e-02, 3.022728666623617e-03, -2.187491699465913e-03}
		1-0
			{2.505774510860374e-01, -2.137227296585345e-01, 1.460334126279035e-01, -2.738918655070545e-03, -5.730819250332260e-02, 5.592805657395544e-02, -3.721264012104720e-02, 8.572570602089127e-03}
			{1.209660820002810e-01, 1.396510378268133e-01, 1.172055819945940e-01, 7.275366516666470e-02, 2.339356123483587e-02, 6.376051365868936e-02, -1.178962539287255e-02, 2.066583836541707e-02}
			{-3.074926079906261e-02, -1.605988367841095e-01, -2.445066443330196e-02, -1.630588976641305e-01, 8.818994625185411e-02, -1.160146478425666e-01, 1.455474051558310e-02, -8.675457272342863e-03}
		1-1
			{1.952804717117615e-01, -7.300590093730225e-02, 6.042071696727033e-02, 9.270769491189283e-02, -9.678720660686860e-02, 9.687283248529466e-02, -4.524370514214098e-02, 1.616377317925587e-02}
			{1.160994358734740e-01, 1.509620471116628e-01, 3.854782672542998e-02, 1.863348472340134e-01, -1.005517761243132e-01, 1.571109866924763e-01, -6.129631527699207e-02, 4.142691912976089e-02}
			{7.113941543724731e-02, -1.159495977087377e-01, -5.168599171836490e-02, -1.601807136141360e-01, 1.016403684398805e-01, -1.551812416743432e-01, 3.929900049784120e-02, -3.674698984149777e-02}
		1-2
			{2.321004802672088e-01, -2.003857941356334e-01, 1.391960937229380e-01, 5.751313910328131e-04, -5.020511100404967e-02, 6.922041922552012e-02, -3.878643987801868e-02, 1.767976476118335e-02}
			{-1.042873275301569e-02, 1.977694754072117e-01, -5.964086771411759e-02, 6.869858250394502e-02, -2.391512948675032e-02, 2.197241395127736e-02, -8.880447640183970e-03, 2.453190130842990e-03}
			{2.852785659703030e-01, -7.268271583677482e-02, 4.884093383249168e-03, 1.548618345945308e-01, -1.003030545250136e-01, 1.063004398888088e-01, -5.155453432394715e-02, 3.548223692628923e-02}
		2-0
			{1.870981015246748e-01, -2.741567227968491e-02, 8.393980366517755e-02, 7.066709166671392e-02, -5.294478959763264e-02, 7.227988141177034e-02, -3.093110884046876e-02, 1.430133227226744e-02}
			{-1.722814245563031e-02, 3.487624519491346e-01, -1.075075805447442e-01, 2.006109441332362e-01, -7.732392468563255e-02, 9.931029811417200e-02, -3.006067107483334e-02, 2.198639505276479e-02}
			{2.617044703009131e-02, 2.945697020036768e-02, -6.274741073705466e-02, 7.357537249959629e-04, 5.053715823868829e-02, -7.046901919119995e-02, 2.577045994399248e-02, -9.728235723116017e-03}
		2-1
			{2.131713759574603e-01, -1.174920330084290e-01, 1.410041840140115e-01, -9.358615342933290e-03, -8.860496124428087e-03, 3.241370600517053e-02, -1.668838513738429e-02, 7.251577167364211e-03}
			{-4.657354776621049e-02, 2.323693239445717e-01, -1.182195834508568e-01, 7.490896263532336e-02, -4.201581753995282e-02, 1.370343176826121e-02, -1.054535144909364e-02, -2.080509703204835e-03}
			{2.735782358114155e-01, 4.434983084529842e-02, 1.742627958117524e-02, 1.568443628860916e-01, -5.074249715863519e-02, 7.507023804041323e-02, -2.868027284066799e-02, 2.719711286813474e-02}
		2-2
			{1.441021711156775e-01, 2.180695665401412e-02, 3.701104718845061e-02, 8.104142660071324e-02, -5.640997754527692e-02, 6.814870806492526e-02, -2.846016084691912e-02, 1.405403034573208e-02}
			{-1.352533817614578e-01, 4.364446320590161e-01, -2.816754532312671e-01, 2.444400400784847e-01, -1.458762062496192e-01, 9.582553563197815e-02, -4.024919920222773e-02, 1.336246181091106e-02}
			{3.323959854050366e-01, 1.487122989840356e-01, -1.424164351441327e-02, 3.028711925159852e-01, -1.275386973408547e-01, 1.414331816303162e-01, -4.379579491139318e-02, 3.390204253038800e-02}
alpha_moments_count = 41
alpha_index_basic_count = 25
alpha_index_basic = {{0, 0, 0, 0}, {0, 1, 0, 0}, {0, 0, 1, 0}, {0, 0, 0, 1}, {0, 2, 0, 0}, {0, 1, 1, 0}, {0, 1, 0, 1}, {0, 0, 2, 0}, {0, 0, 1, 1}, {0, 0, 0, 2}, {0, 3, 0, 0}, {0, 2, 1, 0}, {0, 2, 0, 1}, {0, 1, 2, 0}, {0, 1, 1, 1}, {0, 1, 0, 2}, {0, 0, 3, 0}, {0, 0, 2, 1}, {0, 0, 1, 2}, {0, 0, 0, 3}, {1, 0, 0, 0}, {1, 1, 0, 0}, {1, 0, 1, 0}, {1, 0, 0, 1}, {2, 0, 0, 0}}
alpha_index_times_count = 42
alpha_index_times = {{0, 0, 1, 25}, {1, 1, 1, 26}, {2, 2, 1, 26}, {3, 3, 1, 26}, {1, 4, 1, 27}, {2, 5, 1, 27}, {3, 6, 1, 27}, {1, 5, 1, 28}, {2, 7, 1, 28}, {3, 8, 1, 28}, {1, 6, 1, 29}, {2, 8, 1, 29}, {3, 9, 1, 29}, {4, 4, 1, 30}, {5, 5, 2, 30}, {6, 6, 2, 30}, {7, 7, 1, 30}, {8, 8, 2, 30}, {9, 9, 1, 30}, {10, 10, 1, 31}, {11, 11, 3, 31}, {12, 12, 3, 31}, {13, 13, 3, 31}, {14, 14, 6, 31}, {15, 15, 3, 31}, {16, 16, 1, 31}, {17, 17, 3, 31}, {18, 18, 3, 31}, {19, 19, 1, 31}, {0, 20, 1, 32}, {1, 21, 1, 33}, {2, 22, 1, 33}, {3, 23, 1, 33}, {0, 25, 1, 34}, {0, 26, 1, 35}, {0, 30, 1, 36}, {1, 27, 1, 37}, {2, 28, 1, 37}, {3, 29, 1, 37}, {0, 32, 1, 38}, {0, 34, 1, 39}, {0, 35, 1, 40}}
alpha_scalar_moments = 16
alpha_moment_mapping = {0, 20, 24, 25, 26, 30, 31, 32, 33, 34, 35, 36, 37, 38, 39, 40}
species_coeffs = {1.379720615917198e+02, 1.380084271409272e+02, 7.712317785263336e+01}
moment_coeffs = {-6.550050849423339e+01, -1.711364562592055e+02, -3.016717825578120e+00, -6.998355692246741e+00, -6.175309642371305e+02, -5.982700334635630e+01, 2.461611688641718e+01, 1.670128855151273e+02, -3.141374689966866e+01, 4.271874675142681e+00, 8.070521460955288e+02, 5.314085630187230e+01, 6.628173852660787e+01, -3.753018316089580e+01, -2.249574979138391e+00, -2.834252983763808e+02}