MTP
version = 1.1.0
potential_name = MTP1m
scaling = 8.567522240491439e-02
species_count = 1
potential_tag = 
radial_basis_type = RBChebyshev
	min_dist = 5.000000000000000e-01
	max_dist = 5.000000000000000e+00
	radial_basis_size = 8
	radial_funcs_count = 2
	radial_coeffs
		0-0
			{6.044234393751760e-01, -7.113986225256430e-02, 6.176809378023775e-01, 3.352787547125089e-01, 1.339620648788795e-02, 3.497355642304896e-01, -6.543794845978840e-02, 9.430425500507938e-02}
			{-1.002989652613491e-01, 7.310104394211231e-01, -2.613434460418874e-01, 5.378482754745564e-01, -1.721966220559976e-01, 2.507244328473396e-01, -5.257589827981686e-02, 5.200045240947692e-02}
alpha_moments_count = 8
alpha_index_basic_count = 5
alpha_index_basic = {{0, 0, 0, 0}, {0, 1, 0, 0}, {0, 0, 1, 0}, {0, 0, 0, 1}, {1, 0, 0, 0}}
alpha_index_times_count = 5
alpha_index_times = {{0, 0, 1, 5}, {1, 1, 1, 6}, {2, 2, 1, 6}, {3, 3, 1, 6}, {0, 5, 1, 7}}
alpha_scalar_moments = 5
alpha_moment_mapping = {0, 4, 5, 6, 7}
species_coeffs = {2.975080546998014e+01}
moment_coeffs = {-1.275733895364103e+02, -2.629495394667462e+01, 2.329349522802230e+02, -1.547518555380212e+00, -1.278091915918891e+02}