MTP
version = 1.1.0
potential_name = MTP1m
scaling = 7.941360613936450e-03
species_count = 1
potential_tag = 
radial_basis_type = RBChebyshev
	min_dist = 5.000000000000000e-01
	max_dist = 5.000000000000000e+00
	radial_basis_size = 8
	radial_funcs_count = 2
	radial_coeffs
		0-0
			{4.740687570352782e-01, 4.026963693785611e-01, 6.145527638044029e-01, 3.775554796948325e-01, 1.851444818870998e-01, 2.319313066592502e-01, -3.848734426128531e-03, 6.917936257681258e-02}
			{-3.163793207027421e-01, 7.288815227272372e-01, -4.515390620338900e-01, 3.685013176543948e-01, -1.435661815378994e-01, 8.886786743884853e-02, -1.829204144167524e-02, 1.057164501954956e-02}
alpha_moments_count = 8
alpha_index_basic_count = 5
alpha_index_basic = {{0, 0, 0, 0}, {0, 1, 0, 0}, {0, 0, 1, 0}, {0, 0, 0, 1}, {1, 0, 0, 0}}
alpha_index_times_count = 5
alpha_index_times = {{0, 0, 1, 5}, {1, 1, 1, 6}, {2, 2, 1, 6}, {3, 3, 1, 6}, {0, 5, 1, 7}}
alpha_scalar_moments = 5
alpha_moment_mapping = {0, 4, 5, 6, 7}
species_coeffs = {1.770048929035879e+00}
moment_coeffs = {-1.735072030107757e+01, -3.512843436679602e+02, 1.385684550624402e+03, -1.561207785758640e+03, -1.116021898101442e+04}