MTP
version = 1.1.0
potential_name = MTP1m
scaling = 1.615055828898458e-01
species_count = 1
potential_tag = 
radial_basis_type = RBChebyshev
	min_dist = 5.000000000000000e-01
	max_dist = 5.000000000000000e+00
	radial_basis_size = 8
	radial_funcs_count = 2
	radial_coeffs
		0-0
			{9.953930451010866e-01, 6.065016392342529e-03, -6.407307588288659e-02, 2.789208793433376e-02, 5.144100397745218e-02, -2.564666836568080e-02, -2.401535934968959e-02, 1.979663973895202e-02}
			{-1.266086020515297e-02, 9.859336982404866e-01, -4.118408301963982e-02, 1.952815099099973e-03, 6.327764469312944e-02, -9.190453945003633e-04, -1.096917650798829e-01, -1.001863963970933e-01}
alpha_moments_count = 8
alpha_index_basic_count = 5
alpha_index_basic = {{0, 0, 0, 0}, {0, 1, 0, 0}, {0, 0, 1, 0}, {0, 0, 0, 1}, {1, 0, 0, 0}}
alpha_index_times_count = 5
alpha_index_times = {{0, 0, 1, 5}, {1, 1, 1, 6}, {2, 2, 1, 6}, {3, 3, 1, 6}, {0, 5, 1, 7}}
alpha_scalar_moments = 5
alpha_moment_mapping = {0, 4, 5, 6, 7}
species_coeffs = {6.561894192132971e+01}
moment_coeffs = {-6.637050445642927e+01, -6.843234554379822e+01, -3.450442593700354e+00, -3.418343992667322e+00, -1.183784166678080e+00}