MTP
version = 1.1.0
potential_name = MTP1m
scaling = 1.615055828898458e-01
species_count = 2
potential_tag = 
radial_basis_type = RBChebyshev
	min_dist = 5.000000000000000e-01
	max_dist = 5.000000000000000e+00
	radial_basis_size = 8
	radial_funcs_count = 3
	radial_coeffs
		0-0
			{4.999982492110727e-01, 4.999982492110727e-04, 4.999982492110727e-04, 4.999982492110727e-04, 4.999982492110727e-04, 4.999982492110727e-04, 4.999982492110727e-04, 4.999982492110727e-04}
			{-5.029922303631297e-04, 4.999982522109475e-01, 4.989962637168672e-04, 4.989962637168672e-04, 4.989962637168672e-04, 4.989962637168672e-04, 4.989962637168672e-04, 4.989962637168672e-04}
			{-5.019862589326255e-04, -5.019862594381186e-04, 4.999982552051595e-01, 4.979982861145595e-04, 4.979982861145595e-04, 4.979982861145595e-04, 4.979982861145595e-04, 4.979982861145595e-04}
		0-1
			{4.999982492072854e-01, 4.999982527660909e-04, 4.999982464558051e-04, 4.999982503502660e-04, 4.999982505396342e-04, 4.999982459608990e-04, 4.999982484167068e-04, 4.999982724077166e-04}
			{-5.029922328088686e-04, 4.999982522133129e-01, 4.989962616811950e-04, 4.989962649192203e-04, 4.989962641718798e-04, 4.989962609607503e-04, 4.989962670174787e-04, 4.989962690312000e-04}
			{-5.019862590861287e-04, -5.019862592812519e-04, 4.999982552050050e-01, 4.979982862414593e-04, 4.979982860573646e-04, 4.979982860097206e-04, 4.979982865399144e-04, 4.979982853889287e-04}
		1-0
			{4.999982492072854e-01, 4.999982527660909e-04, 4.999982464558051e-04, 4.999982503502660e-04, 4.999982505396342e-04, 4.999982459608990e-04, 4.999982484167068e-04, 4.999982724077166e-04}
			{-5.029922328088686e-04, 4.999982522133129e-01, 4.989962616811950e-04, 4.989962649192203e-04, 4.989962641718798e-04, 4.989962609607503e-04, 4.989962670174787e-04, 4.989962690312000e-04}
			{-5.019862590861287e-04, -5.019862592812519e-04, 4.999982552050050e-01, 4.979982862414593e-04, 4.979982860573646e-04, 4.979982860097206e-04, 4.979982865399144e-04, 4.979982853889287e-04}
		1-1
			{4.999982492110727e-01, 4.999982492110727e-04, 4.999982492110727e-04, 4.999982492110727e-04, 4.999982492110727e-04, 4.999982492110727e-04, 4.999982492110727e-04, 4.999982492110727e-04}
			{-5.029922303631297e-04, 4.999982522109475e-01, 4.989962637168672e-04, 4.989962637168672e-04, 4.989962637168672e-04, 4.989962637168672e-04, 4.989962637168672e-04, 4.989962637168672e-04}
			{-5.019862589326255e-04, -5.019862594381186e-04, 4.999982552051595e-01, 4.979982861145595e-04, 4.979982861145595e-04, 4.979982861145595e-04, 4.979982861145595e-04, 4.979982861145595e-04}
alpha_moments_count = 41
alpha_index_basic_count = 25
alpha_index_basic = {{0, 0, 0, 0}, {0, 1, 0, 0}, {0, 0, 1, 0}, {0, 0, 0, 1}, {0, 2, 0, 0}, {0, 1, 1, 0}, {0, 1, 0, 1}, {0, 0, 2, 0}, {0, 0, 1, 1}, {0, 0, 0, 2}, {0, 3, 0, 0}, {0, 2, 1, 0}, {0, 2, 0, 1}, {0, 1, 2, 0}, {0, 1, 1, 1}, {0, 1, 0, 2}, {0, 0, 3, 0}, {0, 0, 2, 1}, {0, 0, 1, 2}, {0, 0, 0, 3}, {1, 0, 0, 0}, {1, 1, 0, 0}, {1, 0, 1, 0}, {1, 0, 0, 1}, {2, 0, 0, 0}}
alpha_index_times_count = 42
alpha_index_times = {{0, 0, 1, 25}, {1, 1, 1, 26}, {2, 2, 1, 26}, {3, 3, 1, 26}, {1, 4, 1, 27}, {2, 5, 1, 27}, {3, 6, 1, 27}, {1, 5, 1, 28}, {2, 7, 1, 28}, {3, 8, 1, 28}, {1, 6, 1, 29}, {2, 8, 1, 29}, {3, 9, 1, 29}, {4, 4, 1, 30}, {5, 5, 2, 30}, {6, 6, 2, 30}, {7, 7, 1, 30}, {8, 8, 2, 30}, {9, 9, 1, 30}, {10, 10, 1, 31}, {11, 11, 3, 31}, {12, 12, 3, 31}, {13, 13, 3, 31}, {14, 14, 6, 31}, {15, 15, 3, 31}, {16, 16, 1, 31}, {17, 17, 3, 31}, {18, 18, 3, 31}, {19, 19, 1, 31}, {0, 20, 1, 32}, {1, 21, 1, 33}, {2, 22, 1, 33}, {3, 23, 1, 33}, {0, 25, 1, 34}, {0, 26, 1, 35}, {0, 30, 1, 36}, {1, 27, 1, 37}, {2, 28, 1, 37}, {3, 29, 1, 37}, {0, 32, 1, 38}, {0, 34, 1, 39}, {0, 35, 1, 40}}
alpha_scalar_moments = 16
alpha_moment_mapping = {0, 20, 24, 25, 26, 30, 31, 32, 33, 34, 35, 36, 37, 38, 39, 40}
species_coeffs = {-1.380383193500063e+02, -1.380516538090004e+02}
moment_coeffs = {1.154727753500731e+02, 3.390538659808885e+01, -5.091817814950448e+01, -5.798789905291472e+00, -5.773869182515975e+00, -5.784590710324568e+00, -6.032274333112515e+00, -7.877749586799925e+01, -7.956553058065646e+01, -3.548770265814738e+01, -3.598610993582827e+01, -3.550283961041997e+01, -3.596236255400415e+01, -2.305914919435046e+02, -4.993582122205191e+01, -5.080693742481482e+01}