MTP
version = 1.1.0
potential_name = MTP1m
scaling = 1.615055828898458e-01
species_count = 2
potential_tag = 
radial_basis_type = RBChebyshev
	min_dist = 5.000000000000000e-01
	max_dist = 5.000000000000000e+00
	radial_basis_size = 8
	radial_funcs_count = 2
	radial_coeffs
		0-0
			{4.999982492125570e-01, 4.999982492125570e-04, 4.999982492125570e-04, 4.999982492125570e-04, 4.999982492125570e-04, 4.999982492125570e-04, 4.999982492125570e-04, 4.999982492125570e-04}
			{-5.029922311622811e-04, 4.999982522104021e-01, 4.989962637155240e-04, 4.989962637155240e-04, 4.989962637155240e-04, 4.989962637155240e-04, 4.989962637155240e-04, 4.989962637155240e-04}
		0-1
			{4.999982492057917e-01, 4.999982555513506e-04, 4.999982441412901e-04, 4.999982521546659e-04, 4.999982493148455e-04, 4.999982462273966e-04, 4.999982482975994e-04, 4.999982805974612e-04}
			{-5.029922348037599e-04, 4.999982522138548e-01, 4.989962608503362e-04, 4.989962655833615e-04, 4.989962632998884e-04, 4.989962622107122e-04, 4.989962658273612e-04, 4.989962707129747e-04}
		1-0
			{4.999982492057917e-01, 4.999982555513506e-04, 4.999982441412901e-04, 4.999982521546659e-04, 4.999982493148455e-04, 4.999982462273966e-04, 4.999982482975994e-04, 4.999982805974612e-04}
			{-5.029922348037599e-04, 4.999982522138548e-01, 4.989962608503362e-04, 4.989962655833615e-04, 4.989962632998884e-04, 4.989962622107122e-04, 4.989962658273612e-04, 4.989962707129747e-04}
		1-1
			{4.999982492125570e-01, 4.999982492125570e-04, 4.999982492125570e-04, 4.999982492125570e-04, 4.999982492125570e-04, 4.999982492125570e-04, 4.999982492125570e-04, 4.999982492125570e-04}
			{-5.029922311622811e-04, 4.999982522104021e-01, 4.989962637155240e-04, 4.989962637155240e-04, 4.989962637155240e-04, 4.989962637155240e-04, 4.989962637155240e-04, 4.989962637155240e-04}
alpha_moments_count = 18
alpha_index_basic_count = 11
alpha_index_basic = {{0, 0, 0, 0}, {0, 1, 0, 0}, {0, 0, 1, 0}, {0, 0, 0, 1}, {0, 2, 0, 0}, {0, 1, 1, 0}, {0, 1, 0, 1}, {0, 0, 2, 0}, {0, 0, 1, 1}, {0, 0, 0, 2}, {1, 0, 0, 0}}
alpha_index_times_count = 14
alpha_index_times = {{0, 0, 1, 11}, {1, 1, 1, 12}, {2, 2, 1, 12}, {3, 3, 1, 12}, {4, 4, 1, 13}, {5, 5, 2, 13}, {6, 6, 2, 13}, {7, 7, 1, 13}, {8, 8, 2, 13}, {9, 9, 1, 13}, {0, 10, 1, 14}, {0, 11, 1, 15}, {0, 12, 1, 16}, {0, 15, 1, 17}}
alpha_scalar_moments = 9
alpha_moment_mapping = {0, 10, 11, 12, 13, 14, 15, 16, 17}
species_coeffs = {-9.743660866456045e+01, -9.744602101084868e+01}
moment_coeffs = {2.082355710085439e+02, -8.586878132204382e+01, -8.526249613282850e+01, -8.487113489593594e+01, -8.555122116300971e+01, -3.755597800276482e+02, -1.013354431603534e+02, -1.013701387988140e+02, 1.649462083164013e+01}