MTP
version = 1.1.0
potential_name = MTP1m
scaling = 2.090880000000001e+00
species_count = 3
potential_tag = 
radial_basis_type = RBChebyshev
	min_dist = 5.000000000000000e-01
	max_dist = 5.000000000000000e+00
	radial_basis_size = 8
	radial_funcs_count = 1
	radial_coeffs
		0-0
			{3.688309099813902e-01, -6.814992737990678e-01, 5.177497674051964e-01, -3.200754629756944e-01, 1.589179674016888e-01, -5.909007502506902e-02, 1.609432910539620e-02, -1.921010754763634e-03}
		0-1
			{1.082615607792205e-04, 1.082615607795721e-07, 1.082615607790834e-07, 1.082615607796142e-07, 1.082615607795886e-07, 1.082615607789785e-07, 1.082615607779982e-07, 1.082615607788288e-07}
		0-2
			{1.082615607805451e-04, 1.082615607792838e-07, 1.082615607795402e-07, 1.082615607787490e-07, 1.082615607794014e-07, 1.082615607793893e-07, 1.082615607788106e-07, 1.082615607791365e-07}
		1-0
			{1.082615607792688e-04, 1.082615607799060e-07, 1.082615607809655e-07, 1.082615607797179e-07, 1.082615607792203e-07, 1.082615607789599e-07, 1.082615607796914e-07, 1.082615607794536e-07}
		1-1
			{1.082615607797607e-04, 1.082615607792178e-07, 1.082615607782422e-07, 1.082615607799116e-07, 1.082615607797142e-07, 1.082615607785864e-07, 1.082615607791210e-07, 1.082615607787683e-07}
		1-2
			{1.082615607794508e-04, 1.082615607796119e-07, 1.082615607800434e-07, 1.082615607786613e-07, 1.082615607790906e-07, 1.082615607804393e-07, 1.082615607799003e-07, 1.082615607790685e-07}
		2-0
			{1.082615607794940e-04, 1.082615607790685e-07, 1.082615607801333e-07, 1.082615607790503e-07, 1.082615607788177e-07, 1.082615607787225e-07, 1.082615607802656e-07, 1.082615607794561e-07}
		2-1
			{1.082615607797677e-04, 1.082615607804025e-07, 1.082615607793401e-07, 1.082615607798020e-07, 1.082615607791742e-07, 1.082615607796688e-07, 1.082615607793918e-07, 1.082615607799405e-07}
		2-2
			{1.082615607787713e-04, 1.082615607790566e-07, 1.082615607791493e-07, 1.082615607790113e-07, 1.082615607792631e-07, 1.082615607785320e-07, 1.082615607793148e-07, 1.082615607786894e-07}
alpha_moments_count = 1
alpha_index_basic_count = 1
alpha_index_basic = {{0, 0, 0, 0}}
alpha_index_times_count = 0
alpha_index_times = {}
alpha_scalar_moments = 1
alpha_moment_mapping = {0}
species_coeffs = {1.223068153298747e+00, 0.000000000000000e+00, 0.000000000000000e+00}
moment_coeffs = {1.238342487522631e+00}