MTP
version = 1.1.0
potential_name = MTP1m
scaling = 2.397787169072827e-03
species_count = 1
potential_tag = 
radial_basis_type = RBChebyshev
	min_dist = 5.000000000000000e-01
	max_dist = 5.000000000000000e+00
	radial_basis_size = 8
	radial_funcs_count = 3
	radial_coeffs
		0-0
			{2.990354764706150e-01, 8.778279233148963e-01, 1.426754269009806e-01, 1.108353972912940e-01, 2.496073265930445e-01, -1.099529713191123e-01, 1.552703157969887e-01, -9.408938817968554e-02}
			{-9.783106108238872e-02, 2.968309219918945e-01, -7.400068201263285e-01, 2.810293451695739e-01, -4.646276298320876e-01, 1.808965164132494e-01, -1.597227380291715e-01, -4.023882030637245e-02}
			{9.123092556478357e-01, -2.038560722528013e-01, -3.597475022384161e-02, -1.228928128486387e-01, -2.519890652629954e-01, 9.005094545276589e-02, -1.118594594339562e-01, -1.600546672469199e-01}
alpha_moments_count = 41
alpha_index_basic_count = 25
alpha_index_basic = {{0, 0, 0, 0}, {0, 1, 0, 0}, {0, 0, 1, 0}, {0, 0, 0, 1}, {0, 2, 0, 0}, {0, 1, 1, 0}, {0, 1, 0, 1}, {0, 0, 2, 0}, {0, 0, 1, 1}, {0, 0, 0, 2}, {0, 3, 0, 0}, {0, 2, 1, 0}, {0, 2, 0, 1}, {0, 1, 2, 0}, {0, 1, 1, 1}, {0, 1, 0, 2}, {0, 0, 3, 0}, {0, 0, 2, 1}, {0, 0, 1, 2}, {0, 0, 0, 3}, {1, 0, 0, 0}, {1, 1, 0, 0}, {1, 0, 1, 0}, {1, 0, 0, 1}, {2, 0, 0, 0}}
alpha_index_times_count = 42
alpha_index_times = {{0, 0, 1, 25}, {1, 1, 1, 26}, {2, 2, 1, 26}, {3, 3, 1, 26}, {1, 4, 1, 27}, {2, 5, 1, 27}, {3, 6, 1, 27}, {1, 5, 1, 28}, {2, 7, 1, 28}, {3, 8, 1, 28}, {1, 6, 1, 29}, {2, 8, 1, 29}, {3, 9, 1, 29}, {4, 4, 1, 30}, {5, 5, 2, 30}, {6, 6, 2, 30}, {7, 7, 1, 30}, {8, 8, 2, 30}, {9, 9, 1, 30}, {10, 10, 1, 31}, {11, 11, 3, 31}, {12, 12, 3, 31}, {13, 13, 3, 31}, {14, 14, 6, 31}, {15, 15, 3, 31}, {16, 16, 1, 31}, {17, 17, 3, 31}, {18, 18, 3, 31}, {19, 19, 1, 31}, {0, 20, 1, 32}, {1, 21, 1, 33}, {2, 22, 1, 33}, {3, 23, 1, 33}, {0, 25, 1, 34}, {0, 26, 1, 35}, {0, 30, 1, 36}, {1, 27, 1, 37}, {2, 28, 1, 37}, {3, 29, 1, 37}, {0, 32, 1, 38}, {0, 34, 1, 39}, {0, 35, 1, 40}}
alpha_scalar_moments = 16
alpha_moment_mapping = {0, 20, 24, 25, 26, 30, 31, 32, 33, 34, 35, 36, 37, 38, 39, 40}
species_coeffs = {7.053254855823183e-01}
moment_coeffs = {-4.801402948280581e+02, -8.077045114956327e+02, 4.851051170918757e+02, 7.458339621487227e+01, -2.655089597316637e+03, 2.791900139116762e+03, 1.944714468982830e+03, -8.678463023007017e+02, 2.924668808524007e+03, -5.712591726996474e+02, -2.573522147057489e+03, -1.024650187956192e+03, -7.863017968839882e+02, -3.839935515026474e+02, -1.458077973250404e+02, -3.054498716411821e+02}