MTP
version = 1.1.0
potential_name = MTP1m
scaling = 3.069898119570190e-01
species_count = 1
potential_tag = 
radial_basis_type = RBChebyshev
	min_dist = 5.000000000000000e-01
	max_dist = 5.000000000000000e+00
	radial_basis_size = 8
	radial_funcs_count = 1
	radial_coeffs
		0-0
			{3.730729967363151e-01, -6.853653135171468e-01, 5.181500809033835e-01, -3.115588702887960e-01, 1.507853340350672e-01, -5.136406919239981e-02, 1.295404122127623e-02, -4.445108366009131e-04}
alpha_moments_count = 2
alpha_index_basic_count = 1
alpha_index_basic = {{0, 0, 0, 0}}
alpha_index_times_count = 1
alpha_index_times = {{0, 0, 1, 1}}
alpha_scalar_moments = 2
alpha_moment_mapping = {0, 1}
species_coeffs = {1.531687808478212e+00}
moment_coeffs = {1.087141389055026e+01, 1.129922188339953e+01}