MTP
version = 1.1.0
potential_name = MTP1m
scaling = 1.000000000000000e+00
species_count = 1
potential_tag = 
radial_basis_type = RBChebyshev
	min_dist = 5.000000000000000e-01
	max_dist = 5.000000000000000e+00
	radial_basis_size = 8
	radial_funcs_count = 1
	radial_coeffs
		0-0
			{9.396278843673929e-01, -1.729469975011862e+00, 1.316673492009052e+00, -8.064621480755528e-01, 4.014505873782501e-01, -1.450288050134097e-01, 3.968847105668866e-02, -3.580264863187002e-03}
alpha_moments_count = 2
alpha_index_basic_count = 1
alpha_index_basic = {{0, 0, 0, 0}}
alpha_index_times_count = 1
alpha_index_times = {{0, 0, 1, 1}}
alpha_scalar_moments = 2
alpha_moment_mapping = {0, 1}
species_coeffs = {1.390869486552291e+00}
moment_coeffs = {1.357155008755496e+00, 1.566914473942114e-01}
