MTP
version = 1.1.0
potential_name = MTP1m
scaling = 5.217463895149844e-01
species_count = 3
potential_tag = 
radial_basis_type = RBChebyshev
	min_dist = 5.000000000000000e-01
	max_dist = 5.000000000000000e+00
	radial_basis_size = 8
	radial_funcs_count = 2
	radial_coeffs
		0-0
			{2.092246439906494e-01, -4.367743775448379e-02, 1.671023477633699e-01, 1.405244270648272e-01, -7.539413107634439e-02, 1.564991936383245e-01, -5.661479000387316e-02, 4.393538353732376e-02}
			{-1.663525581906435e-01, 3.547593424467911e-01, -2.449408534095274e-01, 1.871128477781209e-01, -9.259266800344435e-02, 5.513156300435988e-02, -1.723016197640688e-02, 8.236922202113237e-03}
		0-1
			{1.802330623323143e-01, -1.114782496390280e-02, 1.387755086138544e-01, 1.429116858844833e-01, -7.116399509175748e-02, 1.450855022517106e-01, -5.087072672444028e-02, 3.961165486631271e-02}
			{-1.560349577321844e-01, 2.753315857582297e-01, -1.981447131248562e-01, 1.150658480246554e-01, -4.329654639587026e-02, 1.370712850949365e-02, 1.143440562572580e-03, -6.926847999341376e-04}
		0-2
			{-2.475350794318074e-02, 3.204161091430064e-01, -1.367541238125340e-01, 2.940430912524523e-01, -1.521776341950502e-01, 1.651690231173400e-01, -5.751227414186313e-02, 3.697816291991586e-02}
			{-4.350836548491134e-03, 1.228886595108464e-01, -3.895802501450375e-02, 9.565217624398557e-02, -4.367570716991051e-02, 5.484606666390936e-02, -1.896609681725057e-02, 1.451896937465011e-02}
		1-0
			{1.158210035184847e-01, -6.538574024149759e-03, 7.025342355435123e-02, 8.431829961940253e-02, -6.723534231132254e-02, 9.275859465753084e-02, -4.256491132262355e-02, 2.595088200291972e-02}
			{-1.578851585800073e-01, 2.620897867016873e-01, -2.059394906736274e-01, 1.098433389721204e-01, -5.208977088631268e-02, 1.117614056665909e-02, -1.867285890892613e-03, -2.231912625851459e-03}
		1-1
			{8.693245645582101e-02, 2.429163518324807e-02, 3.054764963707150e-02, 1.033083919470778e-01, -8.058395961612350e-02, 9.623177290519754e-02, -4.371079070439367e-02, 2.567853064304455e-02}
			{-2.232165301418443e-01, 3.355554273602104e-01, -2.719053143684907e-01, 1.189886343585220e-01, -4.683164014184395e-02, -7.866308755847495e-03, 9.005299848436269e-03, -8.793712364194637e-03}
		1-2
			{-1.273210665533249e-02, 1.984860753392589e-01, -9.736244477262225e-02, 1.786914662643972e-01, -1.097239340939058e-01, 1.053276996071480e-01, -4.148395376973817e-02, 2.492982480200472e-02}
			{-2.896775523349221e-02, 1.086611401280691e-01, -4.300363586021350e-02, 5.193818126910642e-02, -1.113441455321730e-02, 1.553895873211506e-02, -2.122148228210876e-03, 3.792954355698979e-03}
		2-0
			{2.440625012818749e-01, -1.676393070608072e-01, 2.490446694432260e-01, 1.834032231620045e-02, -8.451961534992902e-03, 9.655421320650256e-02, -3.742076920475682e-02, 3.463204556415006e-02}
			{-3.349741727869149e-02, 1.512999411955218e-01, -7.709207796674537e-02, 1.045816644845039e-01, -5.270260945036332e-02, 5.120207819582094e-02, -1.775686096846301e-02, 1.224601889713694e-02}
		2-1
			{1.838279117875178e-01, -7.162890762528330e-02, 1.878324784682195e-01, 3.464975555591927e-02, 2.617834094602740e-03, 7.513548707867543e-02, -2.354684412211100e-02, 2.654030545862084e-02}
			{-4.970379068867498e-02, 1.198946235679259e-01, -7.090816384506787e-02, 5.542286957556831e-02, -1.963112457760635e-02, 1.373146352364503e-02, -2.168791362649114e-03, 2.736380207602586e-03}
		2-2
			{1.039872358947357e-01, 9.921145030344321e-02, 5.636821424145554e-02, 1.625834770283000e-01, -6.972933828314168e-02, 1.305905219996666e-01, -4.220489720422933e-02, 3.577249575473578e-02}
			{6.138068316441868e-03, 1.595026553569047e-01, -4.325610140474887e-02, 1.417890626700345e-01, -6.304771801128026e-02, 8.460503505895982e-02, -2.677504631009129e-02, 2.128639151536485e-02}
alpha_moments_count = 8
alpha_index_basic_count = 5
alpha_index_basic = {{0, 0, 0, 0}, {0, 1, 0, 0}, {0, 0, 1, 0}, {0, 0, 0, 1}, {1, 0, 0, 0}}
alpha_index_times_count = 5
alpha_index_times = {{0, 0, 1, 5}, {1, 1, 1, 6}, {2, 2, 1, 6}, {3, 3, 1, 6}, {0, 5, 1, 7}}
alpha_scalar_moments = 5
alpha_moment_mapping = {0, 4, 5, 6, 7}
species_coeffs = {2.524313306171855e+02, 2.524978644057597e+02, 9.980173478701245e+01}
moment_coeffs = {-3.826297724811421e+02, -2.633054756533086e+01, 2.739172295596106e+02, -5.967590298480570e+00, -6.131895595124723e+01}