MTP
version = 1.1.0
potential_name = MTP1m
scaling = 3.044527060730765e-01
species_count = 2
potential_tag = 
radial_basis_type = RBChebyshev
	min_dist = 5.000000000000000e-01
	max_dist = 5.000000000000000e+00
	radial_basis_size = 8
	radial_funcs_count = 2
	radial_coeffs
		0-0
			{4.999982492148159e-01, 4.999982492148159e-04, 4.999982492148159e-04, 4.999982492148159e-04, 4.999982492148159e-04, 4.999982492148159e-04, 4.999982492148159e-04, 4.999982492148159e-04}
			{-5.029922320247779e-04, 4.999982522092791e-01, 4.989962637135405e-04, 4.989962637135405e-04, 4.989962637135405e-04, 4.989962637135405e-04, 4.989962637135405e-04, 4.989962637135405e-04}
		0-1
			{4.999982492035232e-01, 4.999982597062592e-04, 4.999982410598700e-04, 4.999982538455122e-04, 4.999982484367497e-04, 4.999982480244692e-04, 4.999982431903775e-04, 4.999982916248981e-04}
			{-5.029922381062274e-04, 4.999982522149713e-01, 4.989962592358112e-04, 4.989962662721410e-04, 4.989962632598671e-04, 4.989962626408198e-04, 4.989962636064771e-04, 4.989962758239621e-04}
		1-0
			{4.999982492035232e-01, 4.999982597062592e-04, 4.999982410598700e-04, 4.999982538455122e-04, 4.999982484367497e-04, 4.999982480244692e-04, 4.999982431903775e-04, 4.999982916248981e-04}
			{-5.029922381062274e-04, 4.999982522149713e-01, 4.989962592358112e-04, 4.989962662721410e-04, 4.989962632598671e-04, 4.989962626408198e-04, 4.989962636064771e-04, 4.989962758239621e-04}
		1-1
			{4.999982492148159e-01, 4.999982492148159e-04, 4.999982492148159e-04, 4.999982492148159e-04, 4.999982492148159e-04, 4.999982492148159e-04, 4.999982492148159e-04, 4.999982492148159e-04}
			{-5.029922320247779e-04, 4.999982522092791e-01, 4.989962637135405e-04, 4.989962637135405e-04, 4.989962637135405e-04, 4.989962637135405e-04, 4.989962637135405e-04, 4.989962637135405e-04}
alpha_moments_count = 8
alpha_index_basic_count = 5
alpha_index_basic = {{0, 0, 0, 0}, {0, 1, 0, 0}, {0, 0, 1, 0}, {0, 0, 0, 1}, {1, 0, 0, 0}}
alpha_index_times_count = 5
alpha_index_times = {{0, 0, 1, 5}, {1, 1, 1, 6}, {2, 2, 1, 6}, {3, 3, 1, 6}, {0, 5, 1, 7}}
alpha_scalar_moments = 5
alpha_moment_mapping = {0, 4, 5, 6, 7}
species_coeffs = {7.036060616868109e+01, 7.036740298149499e+01}
moment_coeffs = {-3.021425744997020e+01, -3.663266644775336e+02, -7.451763410740564e+01, -7.476316291702732e+01, 8.440889000367715e+00}