MTP
version = 1.1.0
potential_name = MTP1m
scaling = 1.942132074145262e+07
species_count = 2
potential_tag = 
radial_basis_type = RBChebyshev
	min_dist = 5.000000000000000e-01
	max_dist = 5.000000000000000e+00
	radial_basis_size = 8
	radial_funcs_count = 1
	radial_coeffs
		0-0
			{3.675670535343905e-05, 3.675670542416067e-08, 3.675670542416067e-08, 3.675670542416067e-08, 3.675670542416067e-08, 3.675670542416067e-08, 3.675670542416067e-08, 3.675670542416067e-08}
		0-1
			{-2.414924953778201e-01, -2.477047821513893e-02, 2.523917669574257e-01, 7.315124088231888e-02, -1.990915392587564e-01, -2.633490488488169e-01, -1.389416469985421e-01, -3.385133889939754e-02}
		1-0
			{-2.414924910225281e-01, -2.477048023184990e-02, 2.523917697619015e-01, 7.315124103901806e-02, -1.990915303662836e-01, -2.633490508117383e-01, -1.389416465311043e-01, -3.385132857703074e-02}
		1-1
			{-9.499099574247410e-02, -1.379649735629919e-01, -1.186357188790888e-01, 3.374833752149843e-01, 3.845143769638454e-01, 3.883061060779045e-01, 1.623713740332508e-01, 6.421821175946883e-02}
alpha_moments_count = 1
alpha_index_basic_count = 1
alpha_index_basic = {{0, 0, 0, 0}}
alpha_index_times_count = 0
alpha_index_times = {}
alpha_scalar_moments = 1
alpha_moment_mapping = {0}
species_coeffs = {-4.477599875920805e+01, -1.363918899704483e+01}
moment_coeffs = {1.744305821400936e-06}