MTP
version = 1.1.0
potential_name = MTP1m
scaling = 6.490547151887453e-02
species_count = 2
potential_tag = 
radial_basis_type = RBChebyshev
	min_dist = 5.000000000000000e-01
	max_dist = 5.000000000000000e+00
	radial_basis_size = 8
	radial_funcs_count = 3
	radial_coeffs
		0-0
			{4.168201874936770e-01, 4.208121072685633e-04, 4.123015893447556e-04, 4.168196618665419e-04, 4.168196618665419e-04, 4.168196618665419e-04, 4.168196618665419e-04, 4.168196618665419e-04}
			{1.181887210769408e-01, 4.117378989819008e-01, 5.336178736243461e-04, 5.294014350623351e-04, 5.294014350623351e-04, 5.294014350623351e-04, 5.294014350623351e-04, 5.294014350623351e-04}
			{-7.480294707697183e-02, 9.688811005673241e-02, 4.244729860892523e-01, 4.456668154381318e-04, 4.456668154381318e-04, 4.456668154381318e-04, 4.456668154381318e-04, 4.456668154381318e-04}
		0-1
			{4.180528173710958e-01, -1.462756210139006e-02, 1.460694788010229e-02, 1.772553456094731e-02, 1.104952166919085e-02, -7.438276295815231e-02, -4.554228364592983e-02, -4.283076905463475e-02}
			{1.059154301683235e-01, 4.162037837002167e-01, -1.609784170557004e-02, 5.698187453008364e-02, -3.133028393523395e-02, -4.335825276216147e-02, -5.160813179900701e-02, 1.741562278331125e-02}
			{-3.240500565570698e-02, 2.170073490544900e-02, 5.467839163287976e-01, -1.031159938660037e-01, 2.837112467435597e-02, 1.771505099500767e-02, -1.518496573840895e-03, -2.118834913001969e-02}
		1-0
			{6.355987638638396e-01, -2.254499409997002e-01, 1.920534176708071e-01, -7.360886733560515e-02, -1.733246951768019e-02, -1.259073940044331e-02, 2.438614664136078e-02, -1.554868009609140e-02}
			{-1.481033304330292e-02, 5.475830224756471e-01, -1.466966569576481e-01, 1.400975634677195e-01, -5.678325858549819e-02, -4.305685246504972e-02, -1.922870192584301e-02, 1.903676907123918e-02}
			{-9.507315732745958e-02, 7.844565959669308e-02, 5.060095030289492e-01, -8.229409607308370e-02, 2.344763629928466e-02, 1.326622965277469e-02, 8.442414151863659e-03, -1.733289191242359e-02}
		1-1
			{2.020627865837082e-01, 1.163467578235079e-01, 2.956858005551975e-02, 7.040863516475809e-02, -1.312080743629436e-01, -2.060790189321316e-01, -1.426245880548182e-01, -5.051167122422862e-02}
			{3.158299704201379e-01, 3.720250133159134e-01, 1.697127573450926e-02, -1.689111533759264e-01, -3.177077372456287e-02, 6.171690585604857e-02, 5.816764005130595e-02, 2.296806545555500e-02}
			{-1.217542907279024e-01, 1.459221743206430e-01, 4.128979763446084e-01, -1.231576622993987e-02, -1.353603935040086e-02, -6.761773293700127e-02, 3.879699405978888e-02, 4.460422112291439e-03}
alpha_moments_count = 41
alpha_index_basic_count = 25
alpha_index_basic = {{0, 0, 0, 0}, {0, 1, 0, 0}, {0, 0, 1, 0}, {0, 0, 0, 1}, {0, 2, 0, 0}, {0, 1, 1, 0}, {0, 1, 0, 1}, {0, 0, 2, 0}, {0, 0, 1, 1}, {0, 0, 0, 2}, {0, 3, 0, 0}, {0, 2, 1, 0}, {0, 2, 0, 1}, {0, 1, 2, 0}, {0, 1, 1, 1}, {0, 1, 0, 2}, {0, 0, 3, 0}, {0, 0, 2, 1}, {0, 0, 1, 2}, {0, 0, 0, 3}, {1, 0, 0, 0}, {1, 1, 0, 0}, {1, 0, 1, 0}, {1, 0, 0, 1}, {2, 0, 0, 0}}
alpha_index_times_count = 42
alpha_index_times = {{0, 0, 1, 25}, {1, 1, 1, 26}, {2, 2, 1, 26}, {3, 3, 1, 26}, {1, 4, 1, 27}, {2, 5, 1, 27}, {3, 6, 1, 27}, {1, 5, 1, 28}, {2, 7, 1, 28}, {3, 8, 1, 28}, {1, 6, 1, 29}, {2, 8, 1, 29}, {3, 9, 1, 29}, {4, 4, 1, 30}, {5, 5, 2, 30}, {6, 6, 2, 30}, {7, 7, 1, 30}, {8, 8, 2, 30}, {9, 9, 1, 30}, {10, 10, 1, 31}, {11, 11, 3, 31}, {12, 12, 3, 31}, {13, 13, 3, 31}, {14, 14, 6, 31}, {15, 15, 3, 31}, {16, 16, 1, 31}, {17, 17, 3, 31}, {18, 18, 3, 31}, {19, 19, 1, 31}, {0, 20, 1, 32}, {1, 21, 1, 33}, {2, 22, 1, 33}, {3, 23, 1, 33}, {0, 25, 1, 34}, {0, 26, 1, 35}, {0, 30, 1, 36}, {1, 27, 1, 37}, {2, 28, 1, 37}, {3, 29, 1, 37}, {0, 32, 1, 38}, {0, 34, 1, 39}, {0, 35, 1, 40}}
alpha_scalar_moments = 16
alpha_moment_mapping = {0, 20, 24, 25, 26, 30, 31, 32, 33, 34, 35, 36, 37, 38, 39, 40}
species_coeffs = {5.086951661877738e+02, 1.549533166379979e+02}
moment_coeffs = {-6.046196121828963e+02, -5.773380966314431e+02, 5.714257282883051e+01, 4.019085343293373e+02, -9.952619087863246e+01, 1.200577313104750e+01, 5.394068798929107e-02, 1.382766654095835e+03, -1.158060411734617e+02, 2.023745378221522e+02, 3.249510196187816e+01, -3.914752210409226e+00, 6.921626787592021e-01, -5.144308349226284e+02, -1.345301210958060e+02, -5.439172392384918e+00}