MTP
version = 1.1.0
potential_name = MTP1m
scaling = 5.145257337863819e+01
species_count = 3
potential_tag = 
radial_basis_type = RBChebyshev
	min_dist = 5.000000000000000e-01
	max_dist = 5.000000000000000e+00
	radial_basis_size = 8
	radial_funcs_count = 1
	radial_coeffs
		0-0
			{1.979173293291938e-01, -3.629864746661120e-01, 2.726029323516001e-01, -1.693952572861062e-01, 8.424328522268497e-02, -3.318803214460401e-02, 9.341384542848247e-03, -1.677857657874537e-03}
		0-1
			{1.417336045633734e-01, -2.589778987966634e-01, 1.929716457960227e-01, -1.178578624761395e-01, 5.688288377406440e-02, -2.181102260038439e-02, 5.816783038807311e-03, -1.082772901240969e-03}
		0-2
			{9.126232891012788e-02, -1.673400842308256e-01, 1.261174614435463e-01, -7.761993049505531e-02, 3.812234425908979e-02, -1.453305934398998e-02, 3.983529106199218e-03, -6.541515351044448e-04}
		1-0
			{1.417336045443990e-01, -2.589778987994288e-01, 1.929716457629331e-01, -1.178578624930961e-01, 5.688288377468092e-02, -2.181102259111711e-02, 5.816783037420468e-03, -1.082772900886077e-03}
		1-1
			{1.640934504711891e-01, -3.034681501571128e-01, 2.276425997617148e-01, -1.435560222288428e-01, 7.137039289407481e-02, -2.930747449211038e-02, 8.399903316007096e-03, -1.849325029820273e-03}
		1-2
			{8.451008432035624e-02, -1.543745192079365e-01, 1.159868923586349e-01, -6.979041231714946e-02, 3.359669941547309e-02, -1.191304373201887e-02, 3.054822741226620e-03, -3.299401714648512e-04}
		2-0
			{9.126232894012476e-02, -1.673400842337177e-01, 1.261174614810211e-01, -7.761993044133211e-02, 3.812234427115733e-02, -1.453305935429183e-02, 3.983529109442354e-03, -6.541515469460536e-04}
		2-1
			{8.451008434009301e-02, -1.543745191591644e-01, 1.159868923974443e-01, -6.979041236526633e-02, 3.359669939981372e-02, -1.191304372867936e-02, 3.054822743872986e-03, -3.299401780232254e-04}
		2-2
			{4.629525437053780e-02, -8.480986509216618e-02, 6.379241259898243e-02, -3.789306590109266e-02, 1.775382657690715e-02, -5.848353802001698e-03, 1.324097467950395e-03, -2.351092922109664e-05}
alpha_moments_count = 1
alpha_index_basic_count = 1
alpha_index_basic = {{0, 0, 0, 0}}
alpha_index_times_count = 0
alpha_index_times = {}
alpha_scalar_moments = 1
alpha_moment_mapping = {0}
species_coeffs = {1.106513407467293e+00, 1.106805053234587e+00, 3.952328480081999e-01}
moment_coeffs = {3.119392999046813e-01}